<?xml version="1.0"?>
<opencv_storage>
<data type_id="opencv-haar-classifier">
  <size>
    20 20</size>
  <stages>
    <_>
      <!-- stage 0 -->
      <trees>
        <_>
          <!-- tree 0 -->
          <_>
            <!-- root node -->
            <feature>
              <rects>
                <_>
                  2 0 8 2 -1.</_>
                <_>
                  2 1 8 1 2.</_></rects>
              <tilted>0</tilted></feature>
            <threshold>1.9862280169036239e-004</threshold>
            <left_val>1.</left_val>
            <right_val>-1.</right_val></_></_></trees>
      <stage_threshold>1.</stage_threshold>
      <parent>-1</parent>
      <next>-1</next></_>
    <_>
      <!-- stage 1 -->
      <trees>
        <_>
          <!-- tree 0 -->
          <_>
            <!-- root node -->
            <feature>
              <rects>
                <_>
                  7 13 3 3 -1.</_>
                <_>
                  8 13 1 3 3.</_></rects>
              <tilted>0</tilted></feature>
            <threshold>7.2862429078668356e-004</threshold>
            <left_val>1.</left_val>
            <right_val>-1.</right_val></_></_></trees>
      <stage_threshold>1.</stage_threshold>
      <parent>0</parent>
      <next>-1</next></_>
    <_>
      <!-- stage 2 -->
      <trees>
        <_>
          <!-- tree 0 -->
          <_>
            <!-- root node -->
            <feature>
              <rects>
                <_>
                  3 3 12 12 -1.</_>
                <_>
                  7 3 4 12 3.</_></rects>
              <tilted>0</tilted></feature>
            <threshold>-6.5417918376624584e-003</threshold>
            <left_val>1.</left_val>
            <right_val>-1.</right_val></_></_></trees>
      <stage_threshold>1.</stage_threshold>
      <parent>1</parent>
      <next>-1</next></_>
    <_>
      <!-- stage 3 -->
      <trees>
        <_>
          <!-- tree 0 -->
          <_>
            <!-- root node -->
            <feature>
              <rects>
                <_>
                  1 2 9 1 -1.</_>
                <_>
                  4 2 3 1 3.</_></rects>
              <tilted>0</tilted></feature>
            <threshold>1.6613369807600975e-003</threshold>
            <left_val>8.1818181276321411e-001</left_val>
            <right_val>-1.</right_val></_></_></trees>
      <stage_threshold>8.1818181276321411e-001</stage_threshold>
      <parent>2</parent>
      <next>-1</next></_>
    <_>
      <!-- stage 4 -->
      <trees>
        <_>
          <!-- tree 0 -->
          <_>
            <!-- root node -->
            <feature>
              <rects>
                <_>
                  0 0 4 12 -1.</_>
                <_>
                  2 0 2 12 2.</_></rects>
              <tilted>0</tilted></feature>
            <threshold>9.5561426132917404e-003</threshold>
            <left_val>1.</left_val>
            <right_val>-1.</right_val></_></_></trees>
      <stage_threshold>1.</stage_threshold>
      <parent>3</parent>
      <next>-1</next></_>
    <_>
      <!-- stage 5 -->
      <trees>
        <_>
          <!-- tree 0 -->
          <_>
            <!-- root node -->
            <feature>
              <rects>
                <_>
                  0 1 3 6 -1.</_>
                <_>
                  0 3 3 2 3.</_></rects>
              <tilted>0</tilted></feature>
            <threshold>2.5738500989973545e-003</threshold>
            <left_val>8.1818181276321411e-001</left_val>
            <right_val>-1.</right_val></_></_></trees>
      <stage_threshold>8.1818181276321411e-001</stage_threshold>
      <parent>4</parent>
      <next>-1</next></_>
    <_>
      <!-- stage 6 -->
      <trees>
        <_>
          <!-- tree 0 -->
          <_>
            <!-- root node -->
            <feature>
              <rects>
                <_>
                  2 3 8 4 -1.</_>
                <_>
                  2 5 8 2 2.</_></rects>
              <tilted>0</tilted></feature>
            <threshold>2.8283270075917244e-003</threshold>
            <left_val>8.1818181276321411e-001</left_val>
            <right_val>-1.</right_val></_></_></trees>
      <stage_threshold>8.1818181276321411e-001</stage_threshold>
      <parent>5</parent>
      <next>-1</next></_>
    <_>
      <!-- stage 7 -->
      <trees>
        <_>
          <!-- tree 0 -->
          <_>
            <!-- root node -->
            <feature>
              <rects>
                <_>
                  4 1 3 12 -1.</_>
                <_>
                  5 1 1 12 3.</_></rects>
              <tilted>0</tilted></feature>
            <threshold>-6.7928070202469826e-003</threshold>
            <left_val>-1.</left_val>
            <right_val>1.</right_val></_></_></trees>
      <stage_threshold>1.</stage_threshold>
      <parent>6</parent>
      <next>-1</next></_>
    <_>
      <!-- stage 8 -->
      <trees>
        <_>
          <!-- tree 0 -->
          <_>
            <!-- root node -->
            <feature>
              <rects>
                <_>
                  1 15 9 3 -1.</_>
                <_>
                  4 15 3 3 3.</_></rects>
              <tilted>0</tilted></feature>
            <threshold>-1.0156120173633099e-002</threshold>
            <left_val>-8.1818181276321411e-001</left_val>
            <right_val>1.</right_val></_></_>
        <_>
          <!-- tree 1 -->
          <_>
            <!-- root node -->
            <feature>
              <rects>
                <_>
                  9 9 2 9 -1.</_>
                <_>
                  9 12 2 3 3.</_></rects>
              <tilted>0</tilted></feature>
            <threshold>9.7894971258938313e-004</threshold>
            <left_val>8.5337501764297485e-001</left_val>
            <right_val>-9.9999952316284180e-001</right_val></_></_></trees>
      <stage_threshold>3.5193149000406265e-002</stage_threshold>
      <parent>7</parent>
      <next>-1</next></_>
    <_>
      <!-- stage 9 -->
      <trees>
        <_>
          <!-- tree 0 -->
          <_>
            <!-- root node -->
            <feature>
              <rects>
                <_>
                  2 6 3 8 -1.</_>
                <_>
                  3 6 1 8 3.</_></rects>
              <tilted>0</tilted></feature>
            <threshold>-5.6042842334136367e-004</threshold>
            <left_val>-8.1818181276321411e-001</left_val>
            <right_val>1.</right_val></_></_>
        <_>
          <!-- tree 1 -->
          <_>
            <!-- root node -->
            <feature>
              <rects>
                <_>
                  13 15 4 2 -1.</_>
                <_>
                  13 15 2 2 2.</_></rects>
              <tilted>0</tilted></feature>
            <threshold>-1.0120050283148885e-003</threshold>
            <left_val>-7.5598978996276855e-001</left_val>
            <right_val>4.9387839436531067e-001</right_val></_></_></trees>
      <stage_threshold>-3.2430338859558105e-001</stage_threshold>
      <parent>8</parent>
      <next>-1</next></_>
    <_>
      <!-- stage 10 -->
      <trees>
        <_>
          <!-- tree 0 -->
          <_>
            <!-- root node -->
            <feature>
              <rects>
                <_>
                  2 12 2 1 -1.</_>
                <_>
                  3 12 1 1 2.</_></rects>
              <tilted>0</tilted></feature>
            <threshold>2.5357960112160072e-005</threshold>
            <left_val>1.</left_val>
            <right_val>-8.1818181276321411e-001</right_val></_></_>
        <_>
          <!-- tree 1 -->
          <_>
            <!-- root node -->
            <feature>
              <rects>
                <_>
                  13 1 4 2 -1.</_>
                <_>
                  15 1 2 1 2.</_>
                <_>
                  13 2 2 1 2.</_></rects>
              <tilted>0</tilted></feature>
            <threshold>1.5122849727049470e-003</threshold>
            <left_val>-3.6687079071998596e-001</left_val>
            <right_val>7.8883928060531616e-001</right_val></_></_></trees>
      <stage_threshold>-2.9342470690608025e-002</stage_threshold>
      <parent>9</parent>
      <next>-1</next></_>
    <_>
      <!-- stage 11 -->
      <trees>
        <_>
          <!-- tree 0 -->
          <_>
            <!-- root node -->
            <feature>
              <rects>
                <_>
                  8 4 4 2 -1.</_>
                <_>
                  8 4 2 1 2.</_>
                <_>
                  10 5 2 1 2.</_></rects>
              <tilted>0</tilted></feature>
            <threshold>4.1747780051082373e-004</threshold>
            <left_val>1.</left_val>
            <right_val>-1.</right_val></_></_></trees>
      <stage_threshold>1.</stage_threshold>
      <parent>10</parent>
      <next>-1</next></_>
    <_>
      <!-- stage 12 -->
      <trees>
        <_>
          <!-- tree 0 -->
          <_>
            <!-- root node -->
            <feature>
              <rects>
                <_>
                  0 0 3 2 -1.</_>
                <_>
                  1 0 1 2 3.</_></rects>
              <tilted>0</tilted></feature>
            <threshold>-6.0681061586365104e-004</threshold>
            <left_val>1.</left_val>
            <right_val>-6.6666662693023682e-001</right_val></_></_>
        <_>
          <!-- tree 1 -->
          <_>
            <!-- root node -->
            <feature>
              <rects>
                <_>
                  13 9 4 4 -1.</_>
                <_>
                  13 11 4 2 2.</_></rects>
              <tilted>0</tilted></feature>
            <threshold>-2.0530309993773699e-003</threshold>
            <left_val>-1.</left_val>
            <right_val>3.7886878848075867e-001</right_val></_></_>
        <_>
          <!-- tree 2 -->
          <_>
            <!-- root node -->
            <feature>
              <rects>
                <_>
                  4 10 9 2 -1.</_>
                <_>
                  4 11 9 1 2.</_></rects>
              <tilted>0</tilted></feature>
            <threshold>1.9296239770483226e-004</threshold>
            <left_val>8.5068047046661377e-001</left_val>
            <right_val>-1.</right_val></_></_></trees>
      <stage_threshold>5.6288260221481323e-001</stage_threshold>
      <parent>11</parent>
      <next>-1</next></_>
    <_>
      <!-- stage 13 -->
      <trees>
        <_>
          <!-- tree 0 -->
          <_>
            <!-- root node -->
            <feature>
              <rects>
                <_>
                  7 3 3 11 -1.</_>
                <_>
                  8 3 1 11 3.</_></rects>
              <tilted>0</tilted></feature>
            <threshold>-2.4739711079746485e-004</threshold>
            <left_val>1.</left_val>
            <right_val>-8.1818181276321411e-001</right_val></_></_>
        <_>
          <!-- tree 1 -->
          <_>
            <!-- root node -->
            <feature>
              <rects>
                <_>
                  15 1 4 6 -1.</_>
                <_>
                  15 3 4 2 3.</_></rects>
              <tilted>0</tilted></feature>
            <threshold>9.4261887716129422e-004</threshold>
            <left_val>5.1240211725234985e-001</left_val>
            <right_val>-3.5461848974227905e-001</right_val></_></_></trees>
      <stage_threshold>-3.0577969551086426e-001</stage_threshold>
      <parent>12</parent>
      <next>-1</next></_></stages></data>
</opencv_storage>
